<?xml version="1.0"?>
<opencv_storage>
<stage6>
  <maxWeakCount>6</maxWeakCount>
  <stageThreshold>-1.8716555833816528e+00</stageThreshold>
  <weakClassifiers>
    <_>
      <internalNodes>
        0 -1 33061 5.7515680789947510e-02</internalNodes>
      <leafValues>
        -8.9743590354919434e-01 8.7500000000000000e-01</leafValues></_>
    <_>
      <internalNodes>
        0 -1 18778 4.3854810297489166e-02</internalNodes>
      <leafValues>
        -6.9380253553390503e-01 4.3651059269905090e-01</leafValues></_>
    <_>
      <internalNodes>
        0 -1 154616 3.5300761461257935e-02</internalNodes>
      <leafValues>
        -5.3889834880828857e-01 4.8032483458518982e-01</leafValues></_>
    <_>
      <internalNodes>
        0 -1 104307 4.3049994856119156e-03</internalNodes>
      <leafValues>
        -3.2878243923187256e-01 6.5747106075286865e-01</leafValues></_>
    <_>
      <internalNodes>
        0 -1 1248 -1.2308715842664242e-02</internalNodes>
      <leafValues>
        4.0048810839653015e-01 -6.0619598627090454e-01</leafValues></_>
    <_>
      <internalNodes>
        0 -1 88995 3.9279744669329375e-05</internalNodes>
      <leafValues>
        -9.8689645528793335e-01 2.0720608532428741e-01</leafValues></_></weakClassifiers></stage6>
</opencv_storage>
