<?xml version="1.0"?>
<opencv_storage>
<stage4>
  <maxWeakCount>5</maxWeakCount>
  <stageThreshold>-1.7074829339981079e+00</stageThreshold>
  <weakClassifiers>
    <_>
      <internalNodes>
        0 -1 119491 -1.3974913954734802e-01</internalNodes>
      <leafValues>
        7.8947371244430542e-01 -9.0095239877700806e-01</leafValues></_>
    <_>
      <internalNodes>
        0 -1 5056 -6.8941470235586166e-03</internalNodes>
      <leafValues>
        2.3147962987422943e-01 -7.4544090032577515e-01</leafValues></_>
    <_>
      <internalNodes>
        0 -1 69393 4.1202753782272339e-02</internalNodes>
      <leafValues>
        -7.1388041973114014e-01 3.2607549428939819e-01</leafValues></_>
    <_>
      <internalNodes>
        0 -1 5472 -1.1423055827617645e-01</internalNodes>
      <leafValues>
        4.1324114799499512e-01 -5.9073865413665771e-01</leafValues></_>
    <_>
      <internalNodes>
        0 -1 38142 -1.7315591685473919e-04</internalNodes>
      <leafValues>
        -1. 2.3954960703849792e-01</leafValues></_></weakClassifiers></stage4>
</opencv_storage>
